digraph Tree {
node [shape=box, fontname="helvetica"] ;
edge [fontname="helvetica"] ;
0 [label="X[0] <= 0.5\ngini = 0.473\nsamples = 891\nvalue = [549, 342]"] ;
1 [label="X[3] <= 2.5\ngini = 0.383\nsamples = 314\nvalue = [81, 233]"] ;
0 -> 1 [labeldistance=2.5, labelangle=45, headlabel="True"] ;
2 [label="X[2] <= 2.5\ngini = 0.1\nsamples = 170\nvalue = [9, 161]"] ;
1 -> 2 ;
3 [label="X[1] <= 88.775\ngini = 0.5\nsamples = 2\nvalue = [1, 1]"] ;
2 -> 3 ;
4 [label="gini = 0.0\nsamples = 1\nvalue = [0, 1]"] ;
3 -> 4 ;
5 [label="gini = 0.0\nsamples = 1\nvalue = [1, 0]"] ;
3 -> 5 ;
6 [label="X[1] <= 28.856\ngini = 0.091\nsamples = 168\nvalue = [8, 160]"] ;
2 -> 6 ;
7 [label="X[1] <= 28.231\ngini = 0.182\nsamples = 69\nvalue = [7, 62]"] ;
6 -> 7 ;
8 [label="X[2] <= 56.0\ngini = 0.161\nsamples = 68\nvalue = [6, 62]"] ;
7 -> 8 ;
9 [label="X[4] <= 0.5\ngini = 0.14\nsamples = 66\nvalue = [5, 61]"] ;
8 -> 9 ;
10 [label="X[1] <= 13.25\ngini = 0.085\nsamples = 45\nvalue = [2, 43]"] ;
9 -> 10 ;
11 [label="X[1] <= 12.825\ngini = 0.147\nsamples = 25\nvalue = [2, 23]"] ;
10 -> 11 ;
12 [label="gini = 0.0\nsamples = 11\nvalue = [0, 11]"] ;
11 -> 12 ;
13 [label="X[2] <= 26.0\ngini = 0.245\nsamples = 14\nvalue = [2, 12]"] ;
11 -> 13 ;
14 [label="X[2] <= 21.0\ngini = 0.444\nsamples = 3\nvalue = [1, 2]"] ;
13 -> 14 ;
15 [label="gini = 0.0\nsamples = 1\nvalue = [0, 1]"] ;
14 -> 15 ;
16 [label="gini = 0.5\nsamples = 2\nvalue = [1, 1]"] ;
14 -> 16 ;
17 [label="X[2] <= 37.0\ngini = 0.165\nsamples = 11\nvalue = [1, 10]"] ;
13 -> 17 ;
18 [label="gini = 0.0\nsamples = 8\nvalue = [0, 8]"] ;
17 -> 18 ;
19 [label="X[2] <= 39.0\ngini = 0.444\nsamples = 3\nvalue = [1, 2]"] ;
17 -> 19 ;
20 [label="gini = 0.0\nsamples = 1\nvalue = [1, 0]"] ;
19 -> 20 ;
21 [label="gini = 0.0\nsamples = 2\nvalue = [0, 2]"] ;
19 -> 21 ;
22 [label="gini = 0.0\nsamples = 20\nvalue = [0, 20]"] ;
10 -> 22 ;
23 [label="X[2] <= 25.0\ngini = 0.245\nsamples = 21\nvalue = [3, 18]"] ;
9 -> 23 ;
24 [label="gini = 0.0\nsamples = 6\nvalue = [0, 6]"] ;
23 -> 24 ;
25 [label="X[2] <= 27.5\ngini = 0.32\nsamples = 15\nvalue = [3, 12]"] ;
23 -> 25 ;
26 [label="X[1] <= 17.429\ngini = 0.444\nsamples = 3\nvalue = [2, 1]"] ;
25 -> 26 ;
27 [label="gini = 0.0\nsamples = 1\nvalue = [0, 1]"] ;
26 -> 27 ;
28 [label="gini = 0.0\nsamples = 2\nvalue = [2, 0]"] ;
26 -> 28 ;
29 [label="X[2] <= 43.0\ngini = 0.153\nsamples = 12\nvalue = [1, 11]"] ;
25 -> 29 ;
30 [label="gini = 0.0\nsamples = 9\nvalue = [0, 9]"] ;
29 -> 30 ;
31 [label="X[2] <= 44.5\ngini = 0.444\nsamples = 3\nvalue = [1, 2]"] ;
29 -> 31 ;
32 [label="gini = 0.0\nsamples = 1\nvalue = [1, 0]"] ;
31 -> 32 ;
33 [label="gini = 0.0\nsamples = 2\nvalue = [0, 2]"] ;
31 -> 33 ;
34 [label="X[1] <= 18.525\ngini = 0.5\nsamples = 2\nvalue = [1, 1]"] ;
8 -> 34 ;
35 [label="gini = 0.0\nsamples = 1\nvalue = [1, 0]"] ;
34 -> 35 ;
36 [label="gini = 0.0\nsamples = 1\nvalue = [0, 1]"] ;
34 -> 36 ;
37 [label="gini = 0.0\nsamples = 1\nvalue = [1, 0]"] ;
7 -> 37 ;
38 [label="X[1] <= 149.035\ngini = 0.02\nsamples = 99\nvalue = [1, 98]"] ;
6 -> 38 ;
39 [label="gini = 0.0\nsamples = 81\nvalue = [0, 81]"] ;
38 -> 39 ;
40 [label="X[1] <= 152.506\ngini = 0.105\nsamples = 18\nvalue = [1, 17]"] ;
38 -> 40 ;
41 [label="X[2] <= 23.5\ngini = 0.5\nsamples = 2\nvalue = [1, 1]"] ;
40 -> 41 ;
42 [label="gini = 0.0\nsamples = 1\nvalue = [0, 1]"] ;
41 -> 42 ;
43 [label="gini = 0.0\nsamples = 1\nvalue = [1, 0]"] ;
41 -> 43 ;
44 [label="gini = 0.0\nsamples = 16\nvalue = [0, 16]"] ;
40 -> 44 ;
45 [label="X[1] <= 23.35\ngini = 0.5\nsamples = 144\nvalue = [72, 72]"] ;
1 -> 45 ;
46 [label="X[2] <= 36.5\ngini = 0.484\nsamples = 117\nvalue = [48, 69]"] ;
45 -> 46 ;
47 [label="X[1] <= 7.888\ngini = 0.472\nsamples = 110\nvalue = [42, 68]"] ;
46 -> 47 ;
48 [label="X[2] <= 29.25\ngini = 0.393\nsamples = 41\nvalue = [11, 30]"] ;
47 -> 48 ;
49 [label="X[1] <= 6.987\ngini = 0.355\nsamples = 39\nvalue = [9, 30]"] ;
48 -> 49 ;
50 [label="gini = 0.0\nsamples = 1\nvalue = [1, 0]"] ;
49 -> 50 ;
51 [label="X[1] <= 7.523\ngini = 0.332\nsamples = 38\nvalue = [8, 30]"] ;
49 -> 51 ;
52 [label="gini = 0.0\nsamples = 6\nvalue = [0, 6]"] ;
51 -> 52 ;
53 [label="X[2] <= 15.0\ngini = 0.375\nsamples = 32\nvalue = [8, 24]"] ;
51 -> 53 ;
54 [label="gini = 0.0\nsamples = 1\nvalue = [1, 0]"] ;
53 -> 54 ;
55 [label="X[1] <= 7.64\ngini = 0.35\nsamples = 31\nvalue = [7, 24]"] ;
53 -> 55 ;
56 [label="X[2] <= 25.5\ngini = 0.444\nsamples = 3\nvalue = [2, 1]"] ;
55 -> 56 ;
57 [label="gini = 0.0\nsamples = 1\nvalue = [0, 1]"] ;
56 -> 57 ;
58 [label="gini = 0.0\nsamples = 2\nvalue = [2, 0]"] ;
56 -> 58 ;
59 [label="X[1] <= 7.781\ngini = 0.293\nsamples = 28\nvalue = [5, 23]"] ;
55 -> 59 ;
60 [label="X[1] <= 7.763\ngini = 0.375\nsamples = 20\nvalue = [5, 15]"] ;
59 -> 60 ;
61 [label="X[1] <= 7.744\ngini = 0.291\nsamples = 17\nvalue = [3, 14]"] ;
60 -> 61 ;
62 [label="gini = 0.0\nsamples = 4\nvalue = [0, 4]"] ;
61 -> 62 ;
63 [label="X[2] <= 21.5\ngini = 0.355\nsamples = 13\nvalue = [3, 10]"] ;
61 -> 63 ;
64 [label="X[2] <= 18.5\ngini = 0.5\nsamples = 2\nvalue = [1, 1]"] ;
63 -> 64 ;
65 [label="gini = 0.0\nsamples = 1\nvalue = [0, 1]"] ;
64 -> 65 ;
66 [label="gini = 0.0\nsamples = 1\nvalue = [1, 0]"] ;
64 -> 66 ;
67 [label="X[2] <= 25.0\ngini = 0.298\nsamples = 11\nvalue = [2, 9]"] ;
63 -> 67 ;
68 [label="gini = 0.0\nsamples = 2\nvalue = [0, 2]"] ;
67 -> 68 ;
69 [label="gini = 0.346\nsamples = 9\nvalue = [2, 7]"] ;
67 -> 69 ;
70 [label="X[2] <= 20.0\ngini = 0.444\nsamples = 3\nvalue = [2, 1]"] ;
60 -> 70 ;
71 [label="gini = 0.0\nsamples = 1\nvalue = [1, 0]"] ;
70 -> 71 ;
72 [label="X[2] <= 23.5\ngini = 0.5\nsamples = 2\nvalue = [1, 1]"] ;
70 -> 72 ;
73 [label="gini = 0.0\nsamples = 1\nvalue = [0, 1]"] ;
72 -> 73 ;
74 [label="gini = 0.0\nsamples = 1\nvalue = [1, 0]"] ;
72 -> 74 ;
75 [label="gini = 0.0\nsamples = 8\nvalue = [0, 8]"] ;
59 -> 75 ;
76 [label="gini = 0.0\nsamples = 2\nvalue = [2, 0]"] ;
48 -> 76 ;
77 [label="X[1] <= 10.825\ngini = 0.495\nsamples = 69\nvalue = [31, 38]"] ;
47 -> 77 ;
78 [label="X[2] <= 19.0\ngini = 0.434\nsamples = 22\nvalue = [15, 7]"] ;
77 -> 78 ;
79 [label="X[2] <= 8.5\ngini = 0.32\nsamples = 5\nvalue = [1, 4]"] ;
78 -> 79 ;
80 [label="gini = 0.0\nsamples = 1\nvalue = [1, 0]"] ;
79 -> 80 ;
81 [label="gini = 0.0\nsamples = 4\nvalue = [0, 4]"] ;
79 -> 81 ;
82 [label="X[2] <= 30.5\ngini = 0.291\nsamples = 17\nvalue = [14, 3]"] ;
78 -> 82 ;
83 [label="X[1] <= 7.988\ngini = 0.219\nsamples = 16\nvalue = [14, 2]"] ;
82 -> 83 ;
84 [label="X[2] <= 25.5\ngini = 0.48\nsamples = 5\nvalue = [3, 2]"] ;
83 -> 84 ;
85 [label="gini = 0.0\nsamples = 2\nvalue = [2, 0]"] ;
84 -> 85 ;
86 [label="X[2] <= 27.5\ngini = 0.444\nsamples = 3\nvalue = [1, 2]"] ;
84 -> 86 ;
87 [label="gini = 0.0\nsamples = 2\nvalue = [0, 2]"] ;
86 -> 87 ;
88 [label="gini = 0.0\nsamples = 1\nvalue = [1, 0]"] ;
86 -> 88 ;
89 [label="gini = 0.0\nsamples = 11\nvalue = [11, 0]"] ;
83 -> 89 ;
90 [label="gini = 0.0\nsamples = 1\nvalue = [0, 1]"] ;
82 -> 90 ;
91 [label="X[1] <= 13.908\ngini = 0.449\nsamples = 47\nvalue = [16, 31]"] ;
77 -> 91 ;
92 [label="gini = 0.0\nsamples = 8\nvalue = [0, 8]"] ;
91 -> 92 ;
93 [label="X[1] <= 15.373\ngini = 0.484\nsamples = 39\nvalue = [16, 23]"] ;
91 -> 93 ;
94 [label="X[2] <= 28.5\ngini = 0.32\nsamples = 10\nvalue = [8, 2]"] ;
93 -> 94 ;
95 [label="X[2] <= 16.0\ngini = 0.198\nsamples = 9\nvalue = [8, 1]"] ;
94 -> 95 ;
96 [label="X[2] <= 14.75\ngini = 0.444\nsamples = 3\nvalue = [2, 1]"] ;
95 -> 96 ;
97 [label="gini = 0.0\nsamples = 2\nvalue = [2, 0]"] ;
96 -> 97 ;
98 [label="gini = 0.0\nsamples = 1\nvalue = [0, 1]"] ;
96 -> 98 ;
99 [label="gini = 0.0\nsamples = 6\nvalue = [6, 0]"] ;
95 -> 99 ;
100 [label="gini = 0.0\nsamples = 1\nvalue = [0, 1]"] ;
94 -> 100 ;
101 [label="X[4] <= 2.5\ngini = 0.4\nsamples = 29\nvalue = [8, 21]"] ;
93 -> 101 ;
102 [label="X[2] <= 28.5\ngini = 0.355\nsamples = 26\nvalue = [6, 20]"] ;
101 -> 102 ;
103 [label="X[1] <= 18.629\ngini = 0.255\nsamples = 20\nvalue = [3, 17]"] ;
102 -> 103 ;
104 [label="X[1] <= 17.25\ngini = 0.375\nsamples = 12\nvalue = [3, 9]"] ;
103 -> 104 ;
105 [label="X[1] <= 15.975\ngini = 0.18\nsamples = 10\nvalue = [1, 9]"] ;
104 -> 105 ;
106 [label="gini = 0.0\nsamples = 5\nvalue = [0, 5]"] ;
105 -> 106 ;
107 [label="X[2] <= 25.0\ngini = 0.32\nsamples = 5\nvalue = [1, 4]"] ;
105 -> 107 ;
108 [label="gini = 0.0\nsamples = 2\nvalue = [0, 2]"] ;
107 -> 108 ;
109 [label="X[2] <= 27.0\ngini = 0.444\nsamples = 3\nvalue = [1, 2]"] ;
107 -> 109 ;
110 [label="gini = 0.0\nsamples = 1\nvalue = [1, 0]"] ;
109 -> 110 ;
111 [label="gini = 0.0\nsamples = 2\nvalue = [0, 2]"] ;
109 -> 111 ;
112 [label="gini = 0.0\nsamples = 2\nvalue = [2, 0]"] ;
104 -> 112 ;
113 [label="gini = 0.0\nsamples = 8\nvalue = [0, 8]"] ;
103 -> 113 ;
114 [label="X[2] <= 33.5\ngini = 0.5\nsamples = 6\nvalue = [3, 3]"] ;
102 -> 114 ;
115 [label="X[1] <= 19.262\ngini = 0.375\nsamples = 4\nvalue = [3, 1]"] ;
114 -> 115 ;
116 [label="gini = 0.0\nsamples = 2\nvalue = [2, 0]"] ;
115 -> 116 ;
117 [label="X[1] <= 20.8\ngini = 0.5\nsamples = 2\nvalue = [1, 1]"] ;
115 -> 117 ;
118 [label="gini = 0.0\nsamples = 1\nvalue = [0, 1]"] ;
117 -> 118 ;
119 [label="gini = 0.0\nsamples = 1\nvalue = [1, 0]"] ;
117 -> 119 ;
120 [label="gini = 0.0\nsamples = 2\nvalue = [0, 2]"] ;
114 -> 120 ;
121 [label="X[2] <= 20.5\ngini = 0.444\nsamples = 3\nvalue = [2, 1]"] ;
101 -> 121 ;
122 [label="gini = 0.0\nsamples = 2\nvalue = [2, 0]"] ;
121 -> 122 ;
123 [label="gini = 0.0\nsamples = 1\nvalue = [0, 1]"] ;
121 -> 123 ;
124 [label="X[2] <= 55.0\ngini = 0.245\nsamples = 7\nvalue = [6, 1]"] ;
46 -> 124 ;
125 [label="gini = 0.0\nsamples = 6\nvalue = [6, 0]"] ;
124 -> 125 ;
126 [label="gini = 0.0\nsamples = 1\nvalue = [0, 1]"] ;
124 -> 126 ;
127 [label="X[2] <= 5.5\ngini = 0.198\nsamples = 27\nvalue = [24, 3]"] ;
45 -> 127 ;
128 [label="X[2] <= 3.5\ngini = 0.444\nsamples = 3\nvalue = [2, 1]"] ;
127 -> 128 ;
129 [label="gini = 0.0\nsamples = 2\nvalue = [2, 0]"] ;
128 -> 129 ;
130 [label="gini = 0.0\nsamples = 1\nvalue = [0, 1]"] ;
128 -> 130 ;
131 [label="X[4] <= 1.5\ngini = 0.153\nsamples = 24\nvalue = [22, 2]"] ;
127 -> 131 ;
132 [label="X[2] <= 38.5\ngini = 0.298\nsamples = 11\nvalue = [9, 2]"] ;
131 -> 132 ;
133 [label="X[1] <= 27.769\ngini = 0.48\nsamples = 5\nvalue = [3, 2]"] ;
132 -> 133 ;
134 [label="X[1] <= 23.8\ngini = 0.375\nsamples = 4\nvalue = [3, 1]"] ;
133 -> 134 ;
135 [label="gini = 0.0\nsamples = 1\nvalue = [1, 0]"] ;
134 -> 135 ;
136 [label="X[4] <= 0.5\ngini = 0.444\nsamples = 3\nvalue = [2, 1]"] ;
134 -> 136 ;
137 [label="gini = 0.0\nsamples = 1\nvalue = [1, 0]"] ;
136 -> 137 ;
138 [label="X[2] <= 29.0\ngini = 0.5\nsamples = 2\nvalue = [1, 1]"] ;
136 -> 138 ;
139 [label="gini = 0.0\nsamples = 1\nvalue = [0, 1]"] ;
138 -> 139 ;
140 [label="gini = 0.0\nsamples = 1\nvalue = [1, 0]"] ;
138 -> 140 ;
141 [label="gini = 0.0\nsamples = 1\nvalue = [0, 1]"] ;
133 -> 141 ;
142 [label="gini = 0.0\nsamples = 6\nvalue = [6, 0]"] ;
132 -> 142 ;
143 [label="gini = 0.0\nsamples = 13\nvalue = [13, 0]"] ;
131 -> 143 ;
144 [label="X[2] <= 6.5\ngini = 0.306\nsamples = 577\nvalue = [468, 109]"] ;
0 -> 144 [labeldistance=2.5, labelangle=-45, headlabel="False"] ;
145 [label="X[4] <= 2.5\ngini = 0.444\nsamples = 24\nvalue = [8, 16]"] ;
144 -> 145 ;
146 [label="gini = 0.0\nsamples = 15\nvalue = [0, 15]"] ;
145 -> 146 ;
147 [label="X[1] <= 31.331\ngini = 0.198\nsamples = 9\nvalue = [8, 1]"] ;
145 -> 147 ;
148 [label="gini = 0.0\nsamples = 5\nvalue = [5, 0]"] ;
147 -> 148 ;
149 [label="X[2] <= 2.5\ngini = 0.375\nsamples = 4\nvalue = [3, 1]"] ;
147 -> 149 ;
150 [label="gini = 0.0\nsamples = 3\nvalue = [3, 0]"] ;
149 -> 150 ;
151 [label="gini = 0.0\nsamples = 1\nvalue = [0, 1]"] ;
149 -> 151 ;
152 [label="X[3] <= 1.5\ngini = 0.28\nsamples = 553\nvalue = [460, 93]"] ;
144 -> 152 ;
153 [label="X[1] <= 26.144\ngini = 0.46\nsamples = 120\nvalue = [77, 43]"] ;
152 -> 153 ;
154 [label="gini = 0.0\nsamples = 10\nvalue = [10, 0]"] ;
153 -> 154 ;
155 [label="X[2] <= 53.0\ngini = 0.476\nsamples = 110\nvalue = [67, 43]"] ;
153 -> 155 ;
156 [label="X[1] <= 27.135\ngini = 0.495\nsamples = 89\nvalue = [49, 40]"] ;
155 -> 156 ;
157 [label="X[1] <= 26.469\ngini = 0.26\nsamples = 13\nvalue = [2, 11]"] ;
156 -> 157 ;
158 [label="gini = 0.0\nsamples = 4\nvalue = [0, 4]"] ;
157 -> 158 ;
159 [label="X[2] <= 46.5\ngini = 0.346\nsamples = 9\nvalue = [2, 7]"] ;
157 -> 159 ;
160 [label="X[2] <= 40.0\ngini = 0.408\nsamples = 7\nvalue = [2, 5]"] ;
159 -> 160 ;
161 [label="X[2] <= 31.0\ngini = 0.32\nsamples = 5\nvalue = [1, 4]"] ;
160 -> 161 ;
162 [label="gini = 0.444\nsamples = 3\nvalue = [1, 2]"] ;
161 -> 162 ;
163 [label="gini = 0.0\nsamples = 2\nvalue = [0, 2]"] ;
161 -> 163 ;
164 [label="gini = 0.5\nsamples = 2\nvalue = [1, 1]"] ;
160 -> 164 ;
165 [label="gini = 0.0\nsamples = 2\nvalue = [0, 2]"] ;
159 -> 165 ;
166 [label="X[1] <= 387.665\ngini = 0.472\nsamples = 76\nvalue = [47, 29]"] ;
156 -> 166 ;
167 [label="X[1] <= 134.642\ngini = 0.463\nsamples = 74\nvalue = [47, 27]"] ;
166 -> 167 ;
168 [label="X[2] <= 27.5\ngini = 0.481\nsamples = 67\nvalue = [40, 27]"] ;
167 -> 168 ;
169 [label="X[2] <= 24.5\ngini = 0.426\nsamples = 13\nvalue = [4, 9]"] ;
168 -> 169 ;
170 [label="X[2] <= 17.5\ngini = 0.49\nsamples = 7\nvalue = [4, 3]"] ;
169 -> 170 ;
171 [label="gini = 0.0\nsamples = 2\nvalue = [0, 2]"] ;
170 -> 171 ;
172 [label="X[1] <= 70.323\ngini = 0.32\nsamples = 5\nvalue = [4, 1]"] ;
170 -> 172 ;
173 [label="X[4] <= 0.5\ngini = 0.5\nsamples = 2\nvalue = [1, 1]"] ;
172 -> 173 ;
174 [label="gini = 0.0\nsamples = 1\nvalue = [0, 1]"] ;
173 -> 174 ;
175 [label="gini = 0.0\nsamples = 1\nvalue = [1, 0]"] ;
173 -> 175 ;
176 [label="gini = 0.0\nsamples = 3\nvalue = [3, 0]"] ;
172 -> 176 ;
177 [label="gini = 0.0\nsamples = 6\nvalue = [0, 6]"] ;
169 -> 177 ;
178 [label="X[1] <= 115.442\ngini = 0.444\nsamples = 54\nvalue = [36, 18]"] ;
168 -> 178 ;
179 [label="X[1] <= 29.1\ngini = 0.426\nsamples = 52\nvalue = [36, 16]"] ;
178 -> 179 ;
180 [label="gini = 0.0\nsamples = 5\nvalue = [5, 0]"] ;
179 -> 180 ;
181 [label="X[1] <= 30.598\ngini = 0.449\nsamples = 47\nvalue = [31, 16]"] ;
179 -> 181 ;
182 [label="X[1] <= 30.25\ngini = 0.408\nsamples = 7\nvalue = [2, 5]"] ;
181 -> 182 ;
183 [label="X[2] <= 28.5\ngini = 0.5\nsamples = 4\nvalue = [2, 2]"] ;
182 -> 183 ;
184 [label="gini = 0.0\nsamples = 2\nvalue = [0, 2]"] ;
183 -> 184 ;
185 [label="gini = 0.0\nsamples = 2\nvalue = [2, 0]"] ;
183 -> 185 ;
186 [label="gini = 0.0\nsamples = 3\nvalue = [0, 3]"] ;
182 -> 186 ;
187 [label="X[4] <= 0.5\ngini = 0.399\nsamples = 40\nvalue = [29, 11]"] ;
181 -> 187 ;
188 [label="X[1] <= 37.0\ngini = 0.266\nsamples = 19\nvalue = [16, 3]"] ;
187 -> 188 ;
189 [label="X[1] <= 35.25\ngini = 0.469\nsamples = 8\nvalue = [5, 3]"] ;
188 -> 189 ;
190 [label="X[2] <= 34.0\ngini = 0.32\nsamples = 5\nvalue = [4, 1]"] ;
189 -> 190 ;
191 [label="gini = 0.0\nsamples = 3\nvalue = [3, 0]"] ;
190 -> 191 ;
192 [label="X[1] <= 32.51\ngini = 0.5\nsamples = 2\nvalue = [1, 1]"] ;
190 -> 192 ;
193 [label="gini = 0.0\nsamples = 1\nvalue = [0, 1]"] ;
192 -> 193 ;
194 [label="gini = 0.0\nsamples = 1\nvalue = [1, 0]"] ;
192 -> 194 ;
195 [label="X[2] <= 36.5\ngini = 0.444\nsamples = 3\nvalue = [1, 2]"] ;
189 -> 195 ;
196 [label="gini = 0.0\nsamples = 2\nvalue = [0, 2]"] ;
195 -> 196 ;
197 [label="gini = 0.0\nsamples = 1\nvalue = [1, 0]"] ;
195 -> 197 ;
198 [label="gini = 0.0\nsamples = 11\nvalue = [11, 0]"] ;
188 -> 198 ;
199 [label="X[2] <= 49.5\ngini = 0.472\nsamples = 21\nvalue = [13, 8]"] ;
187 -> 199 ;
200 [label="X[2] <= 47.0\ngini = 0.494\nsamples = 18\nvalue = [10, 8]"] ;
199 -> 200 ;
201 [label="X[1] <= 59.087\ngini = 0.426\nsamples = 13\nvalue = [9, 4]"] ;
200 -> 201 ;
202 [label="X[1] <= 52.277\ngini = 0.5\nsamples = 6\nvalue = [3, 3]"] ;
201 -> 202 ;
203 [label="gini = 0.0\nsamples = 2\nvalue = [2, 0]"] ;
202 -> 203 ;
204 [label="X[1] <= 52.827\ngini = 0.375\nsamples = 4\nvalue = [1, 3]"] ;
202 -> 204 ;
205 [label="gini = 0.0\nsamples = 2\nvalue = [0, 2]"] ;
204 -> 205 ;
206 [label="X[1] <= 55.05\ngini = 0.5\nsamples = 2\nvalue = [1, 1]"] ;
204 -> 206 ;
207 [label="gini = 0.0\nsamples = 1\nvalue = [1, 0]"] ;
206 -> 207 ;
208 [label="gini = 0.0\nsamples = 1\nvalue = [0, 1]"] ;
206 -> 208 ;
209 [label="X[1] <= 86.737\ngini = 0.245\nsamples = 7\nvalue = [6, 1]"] ;
201 -> 209 ;
210 [label="gini = 0.0\nsamples = 5\nvalue = [5, 0]"] ;
209 -> 210 ;
211 [label="X[4] <= 1.5\ngini = 0.5\nsamples = 2\nvalue = [1, 1]"] ;
209 -> 211 ;
212 [label="gini = 0.0\nsamples = 1\nvalue = [0, 1]"] ;
211 -> 212 ;
213 [label="gini = 0.0\nsamples = 1\nvalue = [1, 0]"] ;
211 -> 213 ;
214 [label="X[1] <= 99.994\ngini = 0.32\nsamples = 5\nvalue = [1, 4]"] ;
200 -> 214 ;
215 [label="gini = 0.0\nsamples = 4\nvalue = [0, 4]"] ;
214 -> 215 ;
216 [label="gini = 0.0\nsamples = 1\nvalue = [1, 0]"] ;
214 -> 216 ;
217 [label="gini = 0.0\nsamples = 3\nvalue = [3, 0]"] ;
199 -> 217 ;
218 [label="gini = 0.0\nsamples = 2\nvalue = [0, 2]"] ;
178 -> 218 ;
219 [label="gini = 0.0\nsamples = 7\nvalue = [7, 0]"] ;
167 -> 219 ;
220 [label="gini = 0.0\nsamples = 2\nvalue = [0, 2]"] ;
166 -> 220 ;
221 [label="X[2] <= 75.5\ngini = 0.245\nsamples = 21\nvalue = [18, 3]"] ;
155 -> 221 ;
222 [label="X[1] <= 35.077\ngini = 0.18\nsamples = 20\nvalue = [18, 2]"] ;
221 -> 222 ;
223 [label="gini = 0.0\nsamples = 11\nvalue = [11, 0]"] ;
222 -> 223 ;
224 [label="X[1] <= 42.502\ngini = 0.346\nsamples = 9\nvalue = [7, 2]"] ;
222 -> 224 ;
225 [label="gini = 0.0\nsamples = 1\nvalue = [0, 1]"] ;
224 -> 225 ;
226 [label="X[4] <= 0.5\ngini = 0.219\nsamples = 8\nvalue = [7, 1]"] ;
224 -> 226 ;
227 [label="gini = 0.0\nsamples = 5\nvalue = [5, 0]"] ;
226 -> 227 ;
228 [label="X[2] <= 62.0\ngini = 0.444\nsamples = 3\nvalue = [2, 1]"] ;
226 -> 228 ;
229 [label="gini = 0.0\nsamples = 1\nvalue = [0, 1]"] ;
228 -> 229 ;
230 [label="gini = 0.0\nsamples = 2\nvalue = [2, 0]"] ;
228 -> 230 ;
231 [label="gini = 0.0\nsamples = 1\nvalue = [0, 1]"] ;
221 -> 231 ;
232 [label="X[1] <= 51.698\ngini = 0.204\nsamples = 433\nvalue = [383, 50]"] ;
152 -> 232 ;
233 [label="X[2] <= 13.0\ngini = 0.193\nsamples = 417\nvalue = [372, 45]"] ;
232 -> 233 ;
234 [label="X[4] <= 2.0\ngini = 0.444\nsamples = 12\nvalue = [8, 4]"] ;
233 -> 234 ;
235 [label="X[2] <= 10.0\ngini = 0.32\nsamples = 5\nvalue = [1, 4]"] ;
234 -> 235 ;
236 [label="gini = 0.0\nsamples = 3\nvalue = [0, 3]"] ;
235 -> 236 ;
237 [label="X[1] <= 15.015\ngini = 0.5\nsamples = 2\nvalue = [1, 1]"] ;
235 -> 237 ;
238 [label="gini = 0.0\nsamples = 1\nvalue = [0, 1]"] ;
237 -> 238 ;
239 [label="gini = 0.0\nsamples = 1\nvalue = [1, 0]"] ;
237 -> 239 ;
240 [label="gini = 0.0\nsamples = 7\nvalue = [7, 0]"] ;
234 -> 240 ;
241 [label="X[2] <= 32.25\ngini = 0.182\nsamples = 405\nvalue = [364, 41]"] ;
233 -> 241 ;
242 [label="X[2] <= 30.75\ngini = 0.206\nsamples = 300\nvalue = [265, 35]"] ;
241 -> 242 ;
243 [label="X[1] <= 23.35\ngini = 0.185\nsamples = 282\nvalue = [253, 29]"] ;
242 -> 243 ;
244 [label="X[1] <= 22.887\ngini = 0.195\nsamples = 265\nvalue = [236, 29]"] ;
243 -> 244 ;
245 [label="X[1] <= 15.173\ngini = 0.19\nsamples = 264\nvalue = [236, 28]"] ;
244 -> 245 ;
246 [label="X[2] <= 28.75\ngini = 0.179\nsamples = 241\nvalue = [217, 24]"] ;
245 -> 246 ;
247 [label="X[1] <= 7.798\ngini = 0.165\nsamples = 220\nvalue = [200, 20]"] ;
246 -> 247 ;
248 [label="X[1] <= 7.763\ngini = 0.215\nsamples = 90\nvalue = [79, 11]"] ;
247 -> 248 ;
249 [label="X[1] <= 7.24\ngini = 0.169\nsamples = 75\nvalue = [68, 7]"] ;
248 -> 249 ;
250 [label="X[2] <= 27.5\ngini = 0.245\nsamples = 42\nvalue = [36, 6]"] ;
249 -> 250 ;
251 [label="X[2] <= 26.0\ngini = 0.363\nsamples = 21\nvalue = [16, 5]"] ;
250 -> 251 ;
252 [label="X[2] <= 19.5\ngini = 0.32\nsamples = 20\nvalue = [16, 4]"] ;
251 -> 252 ;
253 [label="gini = 0.0\nsamples = 7\nvalue = [7, 0]"] ;
252 -> 253 ;
254 [label="X[1] <= 2.006\ngini = 0.426\nsamples = 13\nvalue = [9, 4]"] ;
252 -> 254 ;
255 [label="gini = 0.0\nsamples = 1\nvalue = [0, 1]"] ;
254 -> 255 ;
256 [label="X[1] <= 7.133\ngini = 0.375\nsamples = 12\nvalue = [9, 3]"] ;
254 -> 256 ;
257 [label="gini = 0.0\nsamples = 6\nvalue = [6, 0]"] ;
256 -> 257 ;
258 [label="X[1] <= 7.183\ngini = 0.5\nsamples = 6\nvalue = [3, 3]"] ;
256 -> 258 ;
259 [label="gini = 0.0\nsamples = 1\nvalue = [0, 1]"] ;
258 -> 259 ;
260 [label="X[2] <= 22.75\ngini = 0.48\nsamples = 5\nvalue = [3, 2]"] ;
258 -> 260 ;
261 [label="X[2] <= 21.0\ngini = 0.444\nsamples = 3\nvalue = [1, 2]"] ;
260 -> 261 ;
262 [label="gini = 0.0\nsamples = 1\nvalue = [0, 1]"] ;
261 -> 262 ;
263 [label="X[1] <= 7.227\ngini = 0.5\nsamples = 2\nvalue = [1, 1]"] ;
261 -> 263 ;
264 [label="gini = 0.0\nsamples = 1\nvalue = [0, 1]"] ;
263 -> 264 ;
265 [label="gini = 0.0\nsamples = 1\nvalue = [1, 0]"] ;
263 -> 265 ;
266 [label="gini = 0.0\nsamples = 2\nvalue = [2, 0]"] ;
260 -> 266 ;
267 [label="gini = 0.0\nsamples = 1\nvalue = [0, 1]"] ;
251 -> 267 ;
268 [label="X[1] <= 7.227\ngini = 0.091\nsamples = 21\nvalue = [20, 1]"] ;
250 -> 268 ;
269 [label="gini = 0.0\nsamples = 14\nvalue = [14, 0]"] ;
268 -> 269 ;
270 [label="X[2] <= 28.25\ngini = 0.245\nsamples = 7\nvalue = [6, 1]"] ;
268 -> 270 ;
271 [label="gini = 0.278\nsamples = 6\nvalue = [5, 1]"] ;
270 -> 271 ;
272 [label="gini = 0.0\nsamples = 1\nvalue = [1, 0]"] ;
270 -> 272 ;
273 [label="X[1] <= 7.746\ngini = 0.059\nsamples = 33\nvalue = [32, 1]"] ;
249 -> 273 ;
274 [label="gini = 0.0\nsamples = 21\nvalue = [21, 0]"] ;
273 -> 274 ;
275 [label="X[2] <= 23.0\ngini = 0.153\nsamples = 12\nvalue = [11, 1]"] ;
273 -> 275 ;
276 [label="gini = 0.0\nsamples = 1\nvalue = [1, 0]"] ;
275 -> 276 ;
277 [label="X[4] <= 0.5\ngini = 0.165\nsamples = 11\nvalue = [10, 1]"] ;
275 -> 277 ;
278 [label="gini = 0.18\nsamples = 10\nvalue = [9, 1]"] ;
277 -> 278 ;
279 [label="gini = 0.0\nsamples = 1\nvalue = [1, 0]"] ;
277 -> 279 ;
280 [label="X[2] <= 20.0\ngini = 0.391\nsamples = 15\nvalue = [11, 4]"] ;
248 -> 280 ;
281 [label="gini = 0.0\nsamples = 4\nvalue = [4, 0]"] ;
280 -> 281 ;
282 [label="X[2] <= 26.5\ngini = 0.463\nsamples = 11\nvalue = [7, 4]"] ;
280 -> 282 ;
283 [label="X[4] <= 0.5\ngini = 0.408\nsamples = 7\nvalue = [5, 2]"] ;
282 -> 283 ;
284 [label="X[2] <= 21.5\ngini = 0.32\nsamples = 5\nvalue = [4, 1]"] ;
283 -> 284 ;
285 [label="X[1] <= 7.785\ngini = 0.5\nsamples = 2\nvalue = [1, 1]"] ;
284 -> 285 ;
286 [label="gini = 0.0\nsamples = 1\nvalue = [1, 0]"] ;
285 -> 286 ;
287 [label="gini = 0.0\nsamples = 1\nvalue = [0, 1]"] ;
285 -> 287 ;
288 [label="gini = 0.0\nsamples = 3\nvalue = [3, 0]"] ;
284 -> 288 ;
289 [label="gini = 0.5\nsamples = 2\nvalue = [1, 1]"] ;
283 -> 289 ;
290 [label="X[2] <= 27.5\ngini = 0.5\nsamples = 4\nvalue = [2, 2]"] ;
282 -> 290 ;
291 [label="gini = 0.0\nsamples = 1\nvalue = [0, 1]"] ;
290 -> 291 ;
292 [label="X[1] <= 7.785\ngini = 0.444\nsamples = 3\nvalue = [2, 1]"] ;
290 -> 292 ;
293 [label="gini = 0.5\nsamples = 2\nvalue = [1, 1]"] ;
292 -> 293 ;
294 [label="gini = 0.0\nsamples = 1\nvalue = [1, 0]"] ;
292 -> 294 ;
295 [label="X[2] <= 20.5\ngini = 0.129\nsamples = 130\nvalue = [121, 9]"] ;
247 -> 295 ;
296 [label="X[1] <= 8.104\ngini = 0.251\nsamples = 34\nvalue = [29, 5]"] ;
295 -> 296 ;
297 [label="X[1] <= 7.91\ngini = 0.408\nsamples = 14\nvalue = [10, 4]"] ;
296 -> 297 ;
298 [label="gini = 0.0\nsamples = 6\nvalue = [6, 0]"] ;
297 -> 298 ;
299 [label="X[4] <= 0.5\ngini = 0.5\nsamples = 8\nvalue = [4, 4]"] ;
297 -> 299 ;
300 [label="X[2] <= 19.5\ngini = 0.49\nsamples = 7\nvalue = [4, 3]"] ;
299 -> 300 ;
301 [label="X[2] <= 17.0\ngini = 0.48\nsamples = 5\nvalue = [2, 3]"] ;
300 -> 301 ;
302 [label="gini = 0.5\nsamples = 2\nvalue = [1, 1]"] ;
301 -> 302 ;
303 [label="X[2] <= 18.5\ngini = 0.444\nsamples = 3\nvalue = [1, 2]"] ;
301 -> 303 ;
304 [label="gini = 0.0\nsamples = 1\nvalue = [0, 1]"] ;
303 -> 304 ;
305 [label="gini = 0.5\nsamples = 2\nvalue = [1, 1]"] ;
303 -> 305 ;
306 [label="gini = 0.0\nsamples = 2\nvalue = [2, 0]"] ;
300 -> 306 ;
307 [label="gini = 0.0\nsamples = 1\nvalue = [0, 1]"] ;
299 -> 307 ;
308 [label="X[3] <= 2.5\ngini = 0.095\nsamples = 20\nvalue = [19, 1]"] ;
296 -> 308 ;
309 [label="X[2] <= 18.5\ngini = 0.245\nsamples = 7\nvalue = [6, 1]"] ;
308 -> 309 ;
310 [label="gini = 0.0\nsamples = 4\nvalue = [4, 0]"] ;
309 -> 310 ;
311 [label="X[1] <= 11.75\ngini = 0.444\nsamples = 3\nvalue = [2, 1]"] ;
309 -> 311 ;
312 [label="gini = 0.5\nsamples = 2\nvalue = [1, 1]"] ;
311 -> 312 ;
313 [label="gini = 0.0\nsamples = 1\nvalue = [1, 0]"] ;
311 -> 313 ;
314 [label="gini = 0.0\nsamples = 13\nvalue = [13, 0]"] ;
308 -> 314 ;
315 [label="X[1] <= 8.081\ngini = 0.08\nsamples = 96\nvalue = [92, 4]"] ;
295 -> 315 ;
316 [label="gini = 0.0\nsamples = 54\nvalue = [54, 0]"] ;
315 -> 316 ;
317 [label="X[1] <= 8.273\ngini = 0.172\nsamples = 42\nvalue = [38, 4]"] ;
315 -> 317 ;
318 [label="gini = 0.0\nsamples = 1\nvalue = [0, 1]"] ;
317 -> 318 ;
319 [label="X[2] <= 26.5\ngini = 0.136\nsamples = 41\nvalue = [38, 3]"] ;
317 -> 319 ;
320 [label="gini = 0.0\nsamples = 21\nvalue = [21, 0]"] ;
319 -> 320 ;
321 [label="X[1] <= 14.158\ngini = 0.255\nsamples = 20\nvalue = [17, 3]"] ;
319 -> 321 ;
322 [label="X[1] <= 13.681\ngini = 0.337\nsamples = 14\nvalue = [11, 3]"] ;
321 -> 322 ;
323 [label="X[1] <= 8.688\ngini = 0.26\nsamples = 13\nvalue = [11, 2]"] ;
322 -> 323 ;
324 [label="X[2] <= 27.5\ngini = 0.444\nsamples = 3\nvalue = [2, 1]"] ;
323 -> 324 ;
325 [label="gini = 0.0\nsamples = 1\nvalue = [0, 1]"] ;
324 -> 325 ;
326 [label="gini = 0.0\nsamples = 2\nvalue = [2, 0]"] ;
324 -> 326 ;
327 [label="X[1] <= 11.75\ngini = 0.18\nsamples = 10\nvalue = [9, 1]"] ;
323 -> 327 ;
328 [label="gini = 0.0\nsamples = 5\nvalue = [5, 0]"] ;
327 -> 328 ;
329 [label="X[2] <= 27.5\ngini = 0.32\nsamples = 5\nvalue = [4, 1]"] ;
327 -> 329 ;
330 [label="gini = 0.0\nsamples = 2\nvalue = [2, 0]"] ;
329 -> 330 ;
331 [label="X[1] <= 13.25\ngini = 0.444\nsamples = 3\nvalue = [2, 1]"] ;
329 -> 331 ;
332 [label="gini = 0.5\nsamples = 2\nvalue = [1, 1]"] ;
331 -> 332 ;
333 [label="gini = 0.0\nsamples = 1\nvalue = [1, 0]"] ;
331 -> 333 ;
334 [label="gini = 0.0\nsamples = 1\nvalue = [0, 1]"] ;
322 -> 334 ;
335 [label="gini = 0.0\nsamples = 6\nvalue = [6, 0]"] ;
321 -> 335 ;
336 [label="X[2] <= 29.5\ngini = 0.308\nsamples = 21\nvalue = [17, 4]"] ;
246 -> 336 ;
337 [label="X[1] <= 7.398\ngini = 0.444\nsamples = 9\nvalue = [6, 3]"] ;
336 -> 337 ;
338 [label="gini = 0.0\nsamples = 1\nvalue = [1, 0]"] ;
337 -> 338 ;
339 [label="X[1] <= 7.763\ngini = 0.469\nsamples = 8\nvalue = [5, 3]"] ;
337 -> 339 ;
340 [label="gini = 0.0\nsamples = 1\nvalue = [0, 1]"] ;
339 -> 340 ;
341 [label="X[1] <= 7.885\ngini = 0.408\nsamples = 7\nvalue = [5, 2]"] ;
339 -> 341 ;
342 [label="gini = 0.0\nsamples = 2\nvalue = [2, 0]"] ;
341 -> 342 ;
343 [label="X[1] <= 7.973\ngini = 0.48\nsamples = 5\nvalue = [3, 2]"] ;
341 -> 343 ;
344 [label="gini = 0.0\nsamples = 1\nvalue = [0, 1]"] ;
343 -> 344 ;
345 [label="X[1] <= 9.492\ngini = 0.375\nsamples = 4\nvalue = [3, 1]"] ;
343 -> 345 ;
346 [label="gini = 0.0\nsamples = 2\nvalue = [2, 0]"] ;
345 -> 346 ;
347 [label="X[1] <= 10.0\ngini = 0.5\nsamples = 2\nvalue = [1, 1]"] ;
345 -> 347 ;
348 [label="gini = 0.0\nsamples = 1\nvalue = [0, 1]"] ;
347 -> 348 ;
349 [label="gini = 0.0\nsamples = 1\nvalue = [1, 0]"] ;
347 -> 349 ;
350 [label="X[1] <= 8.775\ngini = 0.153\nsamples = 12\nvalue = [11, 1]"] ;
336 -> 350 ;
351 [label="gini = 0.0\nsamples = 7\nvalue = [7, 0]"] ;
350 -> 351 ;
352 [label="X[1] <= 10.0\ngini = 0.32\nsamples = 5\nvalue = [4, 1]"] ;
350 -> 352 ;
353 [label="gini = 0.0\nsamples = 1\nvalue = [0, 1]"] ;
352 -> 353 ;
354 [label="gini = 0.0\nsamples = 4\nvalue = [4, 0]"] ;
352 -> 354 ;
355 [label="X[1] <= 15.373\ngini = 0.287\nsamples = 23\nvalue = [19, 4]"] ;
245 -> 355 ;
356 [label="gini = 0.0\nsamples = 2\nvalue = [0, 2]"] ;
355 -> 356 ;
357 [label="X[2] <= 27.0\ngini = 0.172\nsamples = 21\nvalue = [19, 2]"] ;
355 -> 357 ;
358 [label="X[1] <= 15.921\ngini = 0.346\nsamples = 9\nvalue = [7, 2]"] ;
357 -> 358 ;
359 [label="gini = 0.0\nsamples = 1\nvalue = [0, 1]"] ;
358 -> 359 ;
360 [label="X[2] <= 25.5\ngini = 0.219\nsamples = 8\nvalue = [7, 1]"] ;
358 -> 360 ;
361 [label="gini = 0.0\nsamples = 6\nvalue = [6, 0]"] ;
360 -> 361 ;
362 [label="X[4] <= 0.5\ngini = 0.5\nsamples = 2\nvalue = [1, 1]"] ;
360 -> 362 ;
363 [label="gini = 0.0\nsamples = 1\nvalue = [0, 1]"] ;
362 -> 363 ;
364 [label="gini = 0.0\nsamples = 1\nvalue = [1, 0]"] ;
362 -> 364 ;
365 [label="gini = 0.0\nsamples = 12\nvalue = [12, 0]"] ;
357 -> 365 ;
366 [label="gini = 0.0\nsamples = 1\nvalue = [0, 1]"] ;
244 -> 366 ;
367 [label="gini = 0.0\nsamples = 17\nvalue = [17, 0]"] ;
243 -> 367 ;
368 [label="X[1] <= 7.815\ngini = 0.444\nsamples = 18\nvalue = [12, 6]"] ;
242 -> 368 ;
369 [label="gini = 0.0\nsamples = 3\nvalue = [3, 0]"] ;
368 -> 369 ;
370 [label="X[1] <= 7.875\ngini = 0.48\nsamples = 15\nvalue = [9, 6]"] ;
368 -> 370 ;
371 [label="gini = 0.0\nsamples = 1\nvalue = [0, 1]"] ;
370 -> 371 ;
372 [label="X[1] <= 26.125\ngini = 0.459\nsamples = 14\nvalue = [9, 5]"] ;
370 -> 372 ;
373 [label="X[1] <= 20.925\ngini = 0.486\nsamples = 12\nvalue = [7, 5]"] ;
372 -> 373 ;
374 [label="X[2] <= 31.5\ngini = 0.463\nsamples = 11\nvalue = [7, 4]"] ;
373 -> 374 ;
375 [label="X[3] <= 2.5\ngini = 0.444\nsamples = 3\nvalue = [1, 2]"] ;
374 -> 375 ;
376 [label="X[1] <= 11.75\ngini = 0.5\nsamples = 2\nvalue = [1, 1]"] ;
375 -> 376 ;
377 [label="gini = 0.0\nsamples = 1\nvalue = [1, 0]"] ;
376 -> 377 ;
378 [label="gini = 0.0\nsamples = 1\nvalue = [0, 1]"] ;
376 -> 378 ;
379 [label="gini = 0.0\nsamples = 1\nvalue = [0, 1]"] ;
375 -> 379 ;
380 [label="X[1] <= 8.206\ngini = 0.375\nsamples = 8\nvalue = [6, 2]"] ;
374 -> 380 ;
381 [label="X[1] <= 7.988\ngini = 0.48\nsamples = 5\nvalue = [3, 2]"] ;
380 -> 381 ;
382 [label="X[1] <= 7.91\ngini = 0.375\nsamples = 4\nvalue = [3, 1]"] ;
381 -> 382 ;
383 [label="gini = 0.0\nsamples = 1\nvalue = [1, 0]"] ;
382 -> 383 ;
384 [label="gini = 0.444\nsamples = 3\nvalue = [2, 1]"] ;
382 -> 384 ;
385 [label="gini = 0.0\nsamples = 1\nvalue = [0, 1]"] ;
381 -> 385 ;
386 [label="gini = 0.0\nsamples = 3\nvalue = [3, 0]"] ;
380 -> 386 ;
387 [label="gini = 0.0\nsamples = 1\nvalue = [0, 1]"] ;
373 -> 387 ;
388 [label="gini = 0.0\nsamples = 2\nvalue = [2, 0]"] ;
372 -> 388 ;
389 [label="X[1] <= 7.91\ngini = 0.108\nsamples = 105\nvalue = [99, 6]"] ;
241 -> 389 ;
390 [label="gini = 0.0\nsamples = 32\nvalue = [32, 0]"] ;
389 -> 390 ;
391 [label="X[1] <= 7.988\ngini = 0.151\nsamples = 73\nvalue = [67, 6]"] ;
389 -> 391 ;
392 [label="X[2] <= 38.0\ngini = 0.5\nsamples = 4\nvalue = [2, 2]"] ;
391 -> 392 ;
393 [label="gini = 0.0\nsamples = 1\nvalue = [1, 0]"] ;
392 -> 393 ;
394 [label="X[2] <= 41.5\ngini = 0.444\nsamples = 3\nvalue = [1, 2]"] ;
392 -> 394 ;
395 [label="gini = 0.5\nsamples = 2\nvalue = [1, 1]"] ;
394 -> 395 ;
396 [label="gini = 0.0\nsamples = 1\nvalue = [0, 1]"] ;
394 -> 396 ;
397 [label="X[2] <= 61.0\ngini = 0.109\nsamples = 69\nvalue = [65, 4]"] ;
391 -> 397 ;
398 [label="X[1] <= 13.25\ngini = 0.087\nsamples = 66\nvalue = [63, 3]"] ;
397 -> 398 ;
399 [label="X[1] <= 12.938\ngini = 0.157\nsamples = 35\nvalue = [32, 3]"] ;
398 -> 399 ;
400 [label="X[2] <= 44.5\ngini = 0.08\nsamples = 24\nvalue = [23, 1]"] ;
399 -> 400 ;
401 [label="gini = 0.0\nsamples = 17\nvalue = [17, 0]"] ;
400 -> 401 ;
402 [label="X[2] <= 46.0\ngini = 0.245\nsamples = 7\nvalue = [6, 1]"] ;
400 -> 402 ;
403 [label="gini = 0.0\nsamples = 1\nvalue = [0, 1]"] ;
402 -> 403 ;
404 [label="gini = 0.0\nsamples = 6\nvalue = [6, 0]"] ;
402 -> 404 ;
405 [label="X[2] <= 45.0\ngini = 0.298\nsamples = 11\nvalue = [9, 2]"] ;
399 -> 405 ;
406 [label="X[2] <= 40.5\ngini = 0.375\nsamples = 8\nvalue = [6, 2]"] ;
405 -> 406 ;
407 [label="X[2] <= 35.0\ngini = 0.278\nsamples = 6\nvalue = [5, 1]"] ;
406 -> 407 ;
408 [label="gini = 0.444\nsamples = 3\nvalue = [2, 1]"] ;
407 -> 408 ;
409 [label="gini = 0.0\nsamples = 3\nvalue = [3, 0]"] ;
407 -> 409 ;
410 [label="gini = 0.5\nsamples = 2\nvalue = [1, 1]"] ;
406 -> 410 ;
411 [label="gini = 0.0\nsamples = 3\nvalue = [3, 0]"] ;
405 -> 411 ;
412 [label="gini = 0.0\nsamples = 31\nvalue = [31, 0]"] ;
398 -> 412 ;
413 [label="X[2] <= 64.0\ngini = 0.444\nsamples = 3\nvalue = [2, 1]"] ;
397 -> 413 ;
414 [label="gini = 0.0\nsamples = 1\nvalue = [0, 1]"] ;
413 -> 414 ;
415 [label="gini = 0.0\nsamples = 2\nvalue = [2, 0]"] ;
413 -> 415 ;
416 [label="X[1] <= 63.023\ngini = 0.43\nsamples = 16\nvalue = [11, 5]"] ;
232 -> 416 ;
417 [label="X[2] <= 30.0\ngini = 0.408\nsamples = 7\nvalue = [2, 5]"] ;
416 -> 417 ;
418 [label="X[2] <= 27.0\ngini = 0.48\nsamples = 5\nvalue = [2, 3]"] ;
417 -> 418 ;
419 [label="gini = 0.0\nsamples = 1\nvalue = [0, 1]"] ;
418 -> 419 ;
420 [label="gini = 0.5\nsamples = 4\nvalue = [2, 2]"] ;
418 -> 420 ;
421 [label="gini = 0.0\nsamples = 2\nvalue = [0, 2]"] ;
417 -> 421 ;
422 [label="gini = 0.0\nsamples = 9\nvalue = [9, 0]"] ;
416 -> 422 ;
}
